digraph Tree {
node [shape=box, style="filled", color="black"] ;
0 [label="S100A7 <= -0.041\ngini = 0.359\nsamples = 192\nvalue = [67, 219]\nclass = Metastatic", fillcolor="#76bbed"] ;
1 [label="KRT17 <= -0.141\ngini = 0.244\nsamples = 174\nvalue = [36, 217]\nclass = Metastatic", fillcolor="#5aade9"] ;
0 -> 1 [labeldistance=2.5, labelangle=45, headlabel="True"] ;
2 [label="C7 <= -0.433\ngini = 0.117\nsamples = 119\nvalue = [11, 166]\nclass = Metastatic", fillcolor="#46a3e7"] ;
1 -> 2 ;
3 [label="gini = 0.484\nsamples = 12\nvalue = [7, 10]\nclass = Metastatic", fillcolor="#c4e2f7"] ;
2 -> 3 ;
4 [label="KRT14 <= -0.182\ngini = 0.049\nsamples = 107\nvalue = [4, 156]\nclass = Metastatic", fillcolor="#3ea0e6"] ;
2 -> 4 ;
5 [label="KRT6B <= -0.153\ngini = 0.015\nsamples = 88\nvalue = [1, 134]\nclass = Metastatic", fillcolor="#3a9ee5"] ;
4 -> 5 ;
6 [label="PVRL4 <= -0.255\ngini = 0.054\nsamples = 26\nvalue = [1, 35]\nclass = Metastatic", fillcolor="#3fa0e6"] ;
5 -> 6 ;
7 [label="gini = 0.0\nsamples = 14\nvalue = [0, 22]\nclass = Metastatic", fillcolor="#399de5"] ;
6 -> 7 ;
8 [label="gini = 0.133\nsamples = 12\nvalue = [1, 13]\nclass = Metastatic", fillcolor="#48a5e7"] ;
6 -> 8 ;
9 [label="gini = 0.0\nsamples = 62\nvalue = [0, 99]\nclass = Metastatic", fillcolor="#399de5"] ;
5 -> 9 ;
10 [label="gini = 0.211\nsamples = 19\nvalue = [3, 22]\nclass = Metastatic", fillcolor="#54aae9"] ;
4 -> 10 ;
11 [label="CLEC2A <= -0.163\ngini = 0.441\nsamples = 55\nvalue = [25, 51]\nclass = Metastatic", fillcolor="#9acdf2"] ;
1 -> 11 ;
12 [label="age_at_index <= -0.095\ngini = 0.31\nsamples = 36\nvalue = [9, 38]\nclass = Metastatic", fillcolor="#68b4eb"] ;
11 -> 12 ;
13 [label="gini = 0.153\nsamples = 19\nvalue = [2, 22]\nclass = Metastatic", fillcolor="#4ba6e7"] ;
12 -> 13 ;
14 [label="gini = 0.423\nsamples = 17\nvalue = [7, 16]\nclass = Metastatic", fillcolor="#90c8f0"] ;
12 -> 14 ;
15 [label="gini = 0.495\nsamples = 19\nvalue = [16, 13]\nclass = Primary Tumor", fillcolor="#fae7da"] ;
11 -> 15 ;
16 [label="gini = 0.114\nsamples = 18\nvalue = [31, 2]\nclass = Primary Tumor", fillcolor="#e78946"] ;
0 -> 16 [labeldistance=2.5, labelangle=-45, headlabel="False"] ;
}