digraph Tree {
node [shape=box, style="filled", color="black"] ;
0 [label="C7 <= -0.425\ngini = 0.332\nsamples = 183\nvalue = [60, 226]\nclass = Metastatic", fillcolor="#6eb7ec"] ;
1 [label="S100A7 <= -0.192\ngini = 0.463\nsamples = 53\nvalue = [49, 28]\nclass = Primary Tumor", fillcolor="#f4c9aa"] ;
0 -> 1 [labeldistance=2.5, labelangle=45, headlabel="True"] ;
2 [label="bmi <= -0.417\ngini = 0.498\nsamples = 29\nvalue = [22, 25]\nclass = Metastatic", fillcolor="#e7f3fc"] ;
1 -> 2 ;
3 [label="gini = 0.444\nsamples = 13\nvalue = [6, 12]\nclass = Metastatic", fillcolor="#9ccef2"] ;
2 -> 3 ;
4 [label="gini = 0.495\nsamples = 16\nvalue = [16, 13]\nclass = Primary Tumor", fillcolor="#fae7da"] ;
2 -> 4 ;
5 [label="KRT6B <= -0.098\ngini = 0.18\nsamples = 24\nvalue = [27, 3]\nclass = Primary Tumor", fillcolor="#e88f4f"] ;
1 -> 5 ;
6 [label="gini = 0.0\nsamples = 12\nvalue = [17, 0]\nclass = Primary Tumor", fillcolor="#e58139"] ;
5 -> 6 ;
7 [label="gini = 0.355\nsamples = 12\nvalue = [10, 3]\nclass = Primary Tumor", fillcolor="#eda774"] ;
5 -> 7 ;
8 [label="S100A7A <= -0.145\ngini = 0.1\nsamples = 130\nvalue = [11, 198]\nclass = Metastatic", fillcolor="#44a2e6"] ;
0 -> 8 [labeldistance=2.5, labelangle=-45, headlabel="False"] ;
9 [label="bmi <= 0.231\ngini = 0.043\nsamples = 113\nvalue = [4, 180]\nclass = Metastatic", fillcolor="#3d9fe6"] ;
8 -> 9 ;
10 [label="gini = 0.0\nsamples = 70\nvalue = [0, 117]\nclass = Metastatic", fillcolor="#399de5"] ;
9 -> 10 ;
11 [label="KRT14 <= -0.182\ngini = 0.112\nsamples = 43\nvalue = [4, 63]\nclass = Metastatic", fillcolor="#46a3e7"] ;
9 -> 11 ;
12 [label="gini = 0.238\nsamples = 19\nvalue = [4, 25]\nclass = Metastatic", fillcolor="#59ade9"] ;
11 -> 12 ;
13 [label="gini = 0.0\nsamples = 24\nvalue = [0, 38]\nclass = Metastatic", fillcolor="#399de5"] ;
11 -> 13 ;
14 [label="gini = 0.403\nsamples = 17\nvalue = [7, 18]\nclass = Metastatic", fillcolor="#86c3ef"] ;
8 -> 14 ;
}