digraph Tree {
node [shape=box, style="filled", color="black"] ;
0 [label="C7 <= -0.425\ngini = 0.34\nsamples = 180\nvalue = [62, 224]\nclass = Metastatic", fillcolor="#70b8ec"] ;
1 [label="KRT6B <= -0.153\ngini = 0.483\nsamples = 51\nvalue = [52, 36]\nclass = Primary Tumor", fillcolor="#f7d8c2"] ;
0 -> 1 [labeldistance=2.5, labelangle=45, headlabel="True"] ;
2 [label="gini = 0.444\nsamples = 21\nvalue = [12, 24]\nclass = Metastatic", fillcolor="#9ccef2"] ;
1 -> 2 ;
3 [label="WFDC5 <= -0.185\ngini = 0.355\nsamples = 30\nvalue = [40, 12]\nclass = Primary Tumor", fillcolor="#eda774"] ;
1 -> 3 ;
4 [label="gini = 0.463\nsamples = 12\nvalue = [14, 8]\nclass = Primary Tumor", fillcolor="#f4c9aa"] ;
3 -> 4 ;
5 [label="gini = 0.231\nsamples = 18\nvalue = [26, 4]\nclass = Primary Tumor", fillcolor="#e99457"] ;
3 -> 5 ;
6 [label="CLEC2A <= -0.109\ngini = 0.096\nsamples = 129\nvalue = [10, 188]\nclass = Metastatic", fillcolor="#44a2e6"] ;
0 -> 6 [labeldistance=2.5, labelangle=-45, headlabel="False"] ;
7 [label="KRT6B <= -0.151\ngini = 0.032\nsamples = 117\nvalue = [3, 181]\nclass = Metastatic", fillcolor="#3c9fe5"] ;
6 -> 7 ;
8 [label="KRTDAP <= -0.184\ngini = 0.012\nsamples = 105\nvalue = [1, 168]\nclass = Metastatic", fillcolor="#3a9ee5"] ;
7 -> 8 ;
9 [label="gini = 0.0\nsamples = 93\nvalue = [0, 152]\nclass = Metastatic", fillcolor="#399de5"] ;
8 -> 9 ;
10 [label="gini = 0.111\nsamples = 12\nvalue = [1, 16]\nclass = Metastatic", fillcolor="#45a3e7"] ;
8 -> 10 ;
11 [label="gini = 0.231\nsamples = 12\nvalue = [2, 13]\nclass = Metastatic", fillcolor="#57ace9"] ;
7 -> 11 ;
12 [label="gini = 0.5\nsamples = 12\nvalue = [7, 7]\nclass = Primary Tumor", fillcolor="#ffffff"] ;
6 -> 12 ;
}