digraph Tree {
node [shape=box, style="filled", color="black"] ;
0 [label="CLEC2A <= -0.113\ngini = 0.351\nsamples = 185\nvalue = [65, 221]\nclass = Metastatic", fillcolor="#73baed"] ;
1 [label="WFDC5 <= -0.193\ngini = 0.174\nsamples = 146\nvalue = [22, 206]\nclass = Metastatic", fillcolor="#4ea7e8"] ;
0 -> 1 [labeldistance=2.5, labelangle=45, headlabel="True"] ;
2 [label="bmi <= -1.099\ngini = 0.104\nsamples = 125\nvalue = [11, 188]\nclass = Metastatic", fillcolor="#45a3e7"] ;
1 -> 2 ;
3 [label="gini = 0.33\nsamples = 15\nvalue = [5, 19]\nclass = Metastatic", fillcolor="#6db7ec"] ;
2 -> 3 ;
4 [label="treatments_radiation_treatment_or_therapy_yes <= 0.399\ngini = 0.066\nsamples = 110\nvalue = [6, 169]\nclass = Metastatic", fillcolor="#40a0e6"] ;
2 -> 4 ;
5 [label="age_at_index <= -0.988\ngini = 0.114\nsamples = 64\nvalue = [6, 93]\nclass = Metastatic", fillcolor="#46a3e7"] ;
4 -> 5 ;
6 [label="gini = 0.255\nsamples = 12\nvalue = [3, 17]\nclass = Metastatic", fillcolor="#5caeea"] ;
5 -> 6 ;
7 [label="C7 <= -0.43\ngini = 0.073\nsamples = 52\nvalue = [3, 76]\nclass = Metastatic", fillcolor="#41a1e6"] ;
5 -> 7 ;
8 [label="gini = 0.219\nsamples = 12\nvalue = [2, 14]\nclass = Metastatic", fillcolor="#55abe9"] ;
7 -> 8 ;
9 [label="KRT14 <= -0.182\ngini = 0.031\nsamples = 40\nvalue = [1, 62]\nclass = Metastatic", fillcolor="#3c9fe5"] ;
7 -> 9 ;
10 [label="gini = 0.0\nsamples = 28\nvalue = [0, 46]\nclass = Metastatic", fillcolor="#399de5"] ;
9 -> 10 ;
11 [label="gini = 0.111\nsamples = 12\nvalue = [1, 16]\nclass = Metastatic", fillcolor="#45a3e7"] ;
9 -> 11 ;
12 [label="gini = 0.0\nsamples = 46\nvalue = [0, 76]\nclass = Metastatic", fillcolor="#399de5"] ;
4 -> 12 ;
13 [label="gini = 0.471\nsamples = 21\nvalue = [11, 18]\nclass = Metastatic", fillcolor="#b2d9f5"] ;
1 -> 13 ;
14 [label="C7 <= -0.414\ngini = 0.383\nsamples = 39\nvalue = [43, 15]\nclass = Primary Tumor", fillcolor="#eead7e"] ;
0 -> 14 [labeldistance=2.5, labelangle=-45, headlabel="False"] ;
15 [label="CLEC2A <= 0.103\ngini = 0.21\nsamples = 27\nvalue = [37, 5]\nclass = Primary Tumor", fillcolor="#e99254"] ;
14 -> 15 ;
16 [label="gini = 0.401\nsamples = 12\nvalue = [13, 5]\nclass = Primary Tumor", fillcolor="#efb185"] ;
15 -> 16 ;
17 [label="gini = 0.0\nsamples = 15\nvalue = [24, 0]\nclass = Primary Tumor", fillcolor="#e58139"] ;
15 -> 17 ;
18 [label="gini = 0.469\nsamples = 12\nvalue = [6, 10]\nclass = Metastatic", fillcolor="#b0d8f5"] ;
14 -> 18 ;
}