digraph Tree {
node [shape=box, style="filled", color="black"] ;
0 [label="C7 <= -0.435\ngini = 0.366\nsamples = 177\nvalue = [69, 217]\nclass = Metastatic", fillcolor="#78bced"] ;
1 [label="gender_male <= -0.276\ngini = 0.25\nsamples = 26\nvalue = [35, 6]\nclass = Primary Tumor", fillcolor="#e9975b"] ;
0 -> 1 [labeldistance=2.5, labelangle=45, headlabel="True"] ;
2 [label="gini = 0.095\nsamples = 13\nvalue = [19, 1]\nclass = Primary Tumor", fillcolor="#e68843"] ;
1 -> 2 ;
3 [label="gini = 0.363\nsamples = 13\nvalue = [16, 5]\nclass = Primary Tumor", fillcolor="#eda877"] ;
1 -> 3 ;
4 [label="KRT17 <= -0.124\ngini = 0.239\nsamples = 151\nvalue = [34, 211]\nclass = Metastatic", fillcolor="#59ade9"] ;
0 -> 4 [labeldistance=2.5, labelangle=-45, headlabel="False"] ;
5 [label="CLEC2A <= -0.169\ngini = 0.133\nsamples = 138\nvalue = [16, 208]\nclass = Metastatic", fillcolor="#48a5e7"] ;
4 -> 5 ;
6 [label="KRT17 <= -0.141\ngini = 0.091\nsamples = 126\nvalue = [10, 200]\nclass = Metastatic", fillcolor="#43a2e6"] ;
5 -> 6 ;
7 [label="C7 <= -0.405\ngini = 0.029\nsamples = 83\nvalue = [2, 136]\nclass = Metastatic", fillcolor="#3c9ee5"] ;
6 -> 7 ;
8 [label="gini = 0.111\nsamples = 19\nvalue = [2, 32]\nclass = Metastatic", fillcolor="#45a3e7"] ;
7 -> 8 ;
9 [label="gini = 0.0\nsamples = 64\nvalue = [0, 104]\nclass = Metastatic", fillcolor="#399de5"] ;
7 -> 9 ;
10 [label="KRT17 <= -0.141\ngini = 0.198\nsamples = 43\nvalue = [8, 64]\nclass = Metastatic", fillcolor="#52a9e8"] ;
6 -> 10 ;
11 [label="gini = 0.312\nsamples = 15\nvalue = [6, 25]\nclass = Metastatic", fillcolor="#69b5eb"] ;
10 -> 11 ;
12 [label="KRT17 <= -0.139\ngini = 0.093\nsamples = 28\nvalue = [2, 39]\nclass = Metastatic", fillcolor="#43a2e6"] ;
10 -> 12 ;
13 [label="gini = 0.0\nsamples = 13\nvalue = [0, 18]\nclass = Metastatic", fillcolor="#399de5"] ;
12 -> 13 ;
14 [label="gini = 0.159\nsamples = 15\nvalue = [2, 21]\nclass = Metastatic", fillcolor="#4ca6e7"] ;
12 -> 14 ;
15 [label="gini = 0.49\nsamples = 12\nvalue = [6, 8]\nclass = Metastatic", fillcolor="#cee6f8"] ;
5 -> 15 ;
16 [label="gini = 0.245\nsamples = 13\nvalue = [18, 3]\nclass = Primary Tumor", fillcolor="#e9965a"] ;
4 -> 16 ;
}