digraph Tree {
node [shape=box, style="filled", color="black"] ;
0 [label="CLEC2A <= -0.113\ngini = 0.344\nsamples = 188\nvalue = [63, 223]\nclass = Metastatic", fillcolor="#71b9ec"] ;
1 [label="C7 <= -0.427\ngini = 0.142\nsamples = 153\nvalue = [18, 216]\nclass = Metastatic", fillcolor="#49a5e7"] ;
0 -> 1 [labeldistance=2.5, labelangle=45, headlabel="True"] ;
2 [label="KRT17 <= -0.141\ngini = 0.45\nsamples = 28\nvalue = [14, 27]\nclass = Metastatic", fillcolor="#a0d0f2"] ;
1 -> 2 ;
3 [label="gini = 0.33\nsamples = 16\nvalue = [5, 19]\nclass = Metastatic", fillcolor="#6db7ec"] ;
2 -> 3 ;
4 [label="gini = 0.498\nsamples = 12\nvalue = [9, 8]\nclass = Primary Tumor", fillcolor="#fcf1e9"] ;
2 -> 4 ;
5 [label="KRT17 <= -0.141\ngini = 0.041\nsamples = 125\nvalue = [4, 189]\nclass = Metastatic", fillcolor="#3d9fe6"] ;
1 -> 5 ;
6 [label="gini = 0.0\nsamples = 88\nvalue = [0, 126]\nclass = Metastatic", fillcolor="#399de5"] ;
5 -> 6 ;
7 [label="C7 <= -0.178\ngini = 0.112\nsamples = 37\nvalue = [4, 63]\nclass = Metastatic", fillcolor="#46a3e7"] ;
5 -> 7 ;
8 [label="gini = 0.0\nsamples = 20\nvalue = [0, 38]\nclass = Metastatic", fillcolor="#399de5"] ;
7 -> 8 ;
9 [label="gini = 0.238\nsamples = 17\nvalue = [4, 25]\nclass = Metastatic", fillcolor="#59ade9"] ;
7 -> 9 ;
10 [label="WFDC5 <= -0.147\ngini = 0.233\nsamples = 35\nvalue = [45, 7]\nclass = Primary Tumor", fillcolor="#e99558"] ;
0 -> 10 [labeldistance=2.5, labelangle=-45, headlabel="False"] ;
11 [label="gini = 0.071\nsamples = 17\nvalue = [26, 1]\nclass = Primary Tumor", fillcolor="#e68641"] ;
10 -> 11 ;
12 [label="gini = 0.365\nsamples = 18\nvalue = [19, 6]\nclass = Primary Tumor", fillcolor="#eda978"] ;
10 -> 12 ;
}