digraph Tree {
node [shape=box, style="filled", color="black"] ;
0 [label="WFDC5 <= -0.188\ngini = 0.38\nsamples = 174\nvalue = [73, 213]\nclass = Metastatic", fillcolor="#7dbfee"] ;
1 [label="C7 <= -0.435\ngini = 0.24\nsamples = 151\nvalue = [34, 210]\nclass = Metastatic", fillcolor="#59ade9"] ;
0 -> 1 [labeldistance=2.5, labelangle=45, headlabel="True"] ;
2 [label="gini = 0.32\nsamples = 12\nvalue = [12, 3]\nclass = Primary Tumor", fillcolor="#eca06a"] ;
1 -> 2 ;
3 [label="KRT17 <= -0.138\ngini = 0.174\nsamples = 139\nvalue = [22, 207]\nclass = Metastatic", fillcolor="#4ea7e8"] ;
1 -> 3 ;
4 [label="KRT17 <= -0.141\ngini = 0.108\nsamples = 121\nvalue = [11, 181]\nclass = Metastatic", fillcolor="#45a3e7"] ;
3 -> 4 ;
5 [label="gini = 0.346\nsamples = 12\nvalue = [4, 14]\nclass = Metastatic", fillcolor="#72b9ec"] ;
4 -> 5 ;
6 [label="C7 <= -0.425\ngini = 0.077\nsamples = 109\nvalue = [7, 167]\nclass = Metastatic", fillcolor="#41a1e6"] ;
4 -> 6 ;
7 [label="gini = 0.287\nsamples = 16\nvalue = [4, 19]\nclass = Metastatic", fillcolor="#63b2ea"] ;
6 -> 7 ;
8 [label="S100A7 <= -0.193\ngini = 0.039\nsamples = 93\nvalue = [3, 148]\nclass = Metastatic", fillcolor="#3d9fe6"] ;
6 -> 8 ;
9 [label="KRT17 <= -0.141\ngini = 0.015\nsamples = 81\nvalue = [1, 130]\nclass = Metastatic", fillcolor="#3b9ee5"] ;
8 -> 9 ;
10 [label="gini = 0.0\nsamples = 65\nvalue = [0, 106]\nclass = Metastatic", fillcolor="#399de5"] ;
9 -> 10 ;
11 [label="gini = 0.077\nsamples = 16\nvalue = [1, 24]\nclass = Metastatic", fillcolor="#41a1e6"] ;
9 -> 11 ;
12 [label="gini = 0.18\nsamples = 12\nvalue = [2, 18]\nclass = Metastatic", fillcolor="#4fa8e8"] ;
8 -> 12 ;
13 [label="gini = 0.418\nsamples = 18\nvalue = [11, 26]\nclass = Metastatic", fillcolor="#8dc6f0"] ;
3 -> 13 ;
14 [label="gini = 0.133\nsamples = 23\nvalue = [39, 3]\nclass = Primary Tumor", fillcolor="#e78b48"] ;
0 -> 14 [labeldistance=2.5, labelangle=-45, headlabel="False"] ;
}