digraph Tree {
node [shape=box, style="filled", color="black"] ;
0 [label="KRT6B <= -0.148\ngini = 0.359\nsamples = 178\nvalue = [67, 219]\nclass = Metastatic", fillcolor="#76bbed"] ;
1 [label="CLEC2A <= -0.11\ngini = 0.224\nsamples = 150\nvalue = [31, 210]\nclass = Metastatic", fillcolor="#56abe9"] ;
0 -> 1 [labeldistance=2.5, labelangle=45, headlabel="True"] ;
2 [label="age_at_index <= 0.434\ngini = 0.134\nsamples = 137\nvalue = [16, 205]\nclass = Metastatic", fillcolor="#48a5e7"] ;
1 -> 2 ;
3 [label="KRT6B <= -0.153\ngini = 0.05\nsamples = 94\nvalue = [4, 153]\nclass = Metastatic", fillcolor="#3ea0e6"] ;
2 -> 3 ;
4 [label="C7 <= -0.423\ngini = 0.016\nsamples = 72\nvalue = [1, 124]\nclass = Metastatic", fillcolor="#3b9ee5"] ;
3 -> 4 ;
5 [label="gini = 0.095\nsamples = 12\nvalue = [1, 19]\nclass = Metastatic", fillcolor="#43a2e6"] ;
4 -> 5 ;
6 [label="gini = 0.0\nsamples = 60\nvalue = [0, 105]\nclass = Metastatic", fillcolor="#399de5"] ;
4 -> 6 ;
7 [label="gini = 0.17\nsamples = 22\nvalue = [3, 29]\nclass = Metastatic", fillcolor="#4da7e8"] ;
3 -> 7 ;
8 [label="PVRL4 <= -0.238\ngini = 0.305\nsamples = 43\nvalue = [12, 52]\nclass = Metastatic", fillcolor="#67b4eb"] ;
2 -> 8 ;
9 [label="C7 <= -0.38\ngini = 0.13\nsamples = 31\nvalue = [3, 40]\nclass = Metastatic", fillcolor="#48a4e7"] ;
8 -> 9 ;
10 [label="gini = 0.266\nsamples = 12\nvalue = [3, 16]\nclass = Metastatic", fillcolor="#5eafea"] ;
9 -> 10 ;
11 [label="gini = 0.0\nsamples = 19\nvalue = [0, 24]\nclass = Metastatic", fillcolor="#399de5"] ;
9 -> 11 ;
12 [label="gini = 0.49\nsamples = 12\nvalue = [9, 12]\nclass = Metastatic", fillcolor="#cee6f8"] ;
8 -> 12 ;
13 [label="gini = 0.375\nsamples = 13\nvalue = [15, 5]\nclass = Primary Tumor", fillcolor="#eeab7b"] ;
1 -> 13 ;
14 [label="PVRL4 <= 0.145\ngini = 0.32\nsamples = 28\nvalue = [36, 9]\nclass = Primary Tumor", fillcolor="#eca06a"] ;
0 -> 14 [labeldistance=2.5, labelangle=-45, headlabel="False"] ;
15 [label="gini = 0.463\nsamples = 15\nvalue = [14, 8]\nclass = Primary Tumor", fillcolor="#f4c9aa"] ;
14 -> 15 ;
16 [label="gini = 0.083\nsamples = 13\nvalue = [22, 1]\nclass = Primary Tumor", fillcolor="#e68742"] ;
14 -> 16 ;
}