digraph Tree {
node [shape=box, style="filled", color="black"] ;
0 [label="CLEC2A <= -0.11\ngini = 0.362\nsamples = 180\nvalue = [68, 218]\nclass = Metastatic", fillcolor="#77bced"] ;
1 [label="C7 <= -0.436\ngini = 0.176\nsamples = 144\nvalue = [22, 204]\nclass = Metastatic", fillcolor="#4ea8e8"] ;
0 -> 1 [labeldistance=2.5, labelangle=45, headlabel="True"] ;
2 [label="gini = 0.432\nsamples = 12\nvalue = [13, 6]\nclass = Primary Tumor", fillcolor="#f1bb94"] ;
1 -> 2 ;
3 [label="KRT17 <= -0.139\ngini = 0.083\nsamples = 132\nvalue = [9, 198]\nclass = Metastatic", fillcolor="#42a1e6"] ;
1 -> 3 ;
4 [label="KRT17 <= -0.141\ngini = 0.022\nsamples = 116\nvalue = [2, 179]\nclass = Metastatic", fillcolor="#3b9ee5"] ;
3 -> 4 ;
5 [label="gini = 0.0\nsamples = 104\nvalue = [0, 159]\nclass = Metastatic", fillcolor="#399de5"] ;
4 -> 5 ;
6 [label="gini = 0.165\nsamples = 12\nvalue = [2, 20]\nclass = Metastatic", fillcolor="#4da7e8"] ;
4 -> 6 ;
7 [label="gini = 0.393\nsamples = 16\nvalue = [7, 19]\nclass = Metastatic", fillcolor="#82c1ef"] ;
3 -> 7 ;
8 [label="bmi <= -0.407\ngini = 0.358\nsamples = 36\nvalue = [46, 14]\nclass = Primary Tumor", fillcolor="#eda775"] ;
0 -> 8 [labeldistance=2.5, labelangle=-45, headlabel="False"] ;
9 [label="gini = 0.191\nsamples = 16\nvalue = [25, 3]\nclass = Primary Tumor", fillcolor="#e89051"] ;
8 -> 9 ;
10 [label="gini = 0.451\nsamples = 20\nvalue = [21, 11]\nclass = Primary Tumor", fillcolor="#f3c3a1"] ;
8 -> 10 ;
}