digraph Tree {
node [shape=box, style="filled", color="black"] ;
0 [label="C7 <= -0.413\ngini = 0.302\nsamples = 180\nvalue = [53, 233]\nclass = Metastatic", fillcolor="#66b3eb"] ;
1 [label="S100A7A <= -0.142\ngini = 0.499\nsamples = 66\nvalue = [47, 52]\nclass = Metastatic", fillcolor="#ecf6fc"] ;
0 -> 1 [labeldistance=2.5, labelangle=45, headlabel="True"] ;
2 [label="C7 <= -0.435\ngini = 0.447\nsamples = 47\nvalue = [25, 49]\nclass = Metastatic", fillcolor="#9ecff2"] ;
1 -> 2 ;
3 [label="gini = 0.473\nsamples = 16\nvalue = [16, 10]\nclass = Primary Tumor", fillcolor="#f5d0b5"] ;
2 -> 3 ;
4 [label="C7 <= -0.43\ngini = 0.305\nsamples = 31\nvalue = [9, 39]\nclass = Metastatic", fillcolor="#67b4eb"] ;
2 -> 4 ;
5 [label="gini = 0.117\nsamples = 18\nvalue = [2, 30]\nclass = Metastatic", fillcolor="#46a4e7"] ;
4 -> 5 ;
6 [label="gini = 0.492\nsamples = 13\nvalue = [7, 9]\nclass = Metastatic", fillcolor="#d3e9f9"] ;
4 -> 6 ;
7 [label="gini = 0.211\nsamples = 19\nvalue = [22, 3]\nclass = Primary Tumor", fillcolor="#e99254"] ;
1 -> 7 ;
8 [label="KRT6B <= -0.151\ngini = 0.062\nsamples = 114\nvalue = [6, 181]\nclass = Metastatic", fillcolor="#40a0e6"] ;
0 -> 8 [labeldistance=2.5, labelangle=-45, headlabel="False"] ;
9 [label="KRT17 <= -0.141\ngini = 0.024\nsamples = 101\nvalue = [2, 165]\nclass = Metastatic", fillcolor="#3b9ee5"] ;
8 -> 9 ;
10 [label="gini = 0.105\nsamples = 14\nvalue = [1, 17]\nclass = Metastatic", fillcolor="#45a3e7"] ;
9 -> 10 ;
11 [label="KRT14 <= -0.182\ngini = 0.013\nsamples = 87\nvalue = [1, 148]\nclass = Metastatic", fillcolor="#3a9ee5"] ;
9 -> 11 ;
12 [label="gini = 0.0\nsamples = 70\nvalue = [0, 120]\nclass = Metastatic", fillcolor="#399de5"] ;
11 -> 12 ;
13 [label="gini = 0.067\nsamples = 17\nvalue = [1, 28]\nclass = Metastatic", fillcolor="#40a0e6"] ;
11 -> 13 ;
14 [label="gini = 0.32\nsamples = 13\nvalue = [4, 16]\nclass = Metastatic", fillcolor="#6ab6ec"] ;
8 -> 14 ;
}