digraph Tree {
node [shape=box, style="filled", color="black"] ;
0 [label="CLEC2A <= -0.163\ngini = 0.332\nsamples = 181\nvalue = [60, 226]\nclass = Metastatic", fillcolor="#6eb7ec"] ;
1 [label="C7 <= -0.435\ngini = 0.168\nsamples = 150\nvalue = [22, 216]\nclass = Metastatic", fillcolor="#4da7e8"] ;
0 -> 1 [labeldistance=2.5, labelangle=45, headlabel="True"] ;
2 [label="gini = 0.48\nsamples = 13\nvalue = [12, 8]\nclass = Primary Tumor", fillcolor="#f6d5bd"] ;
1 -> 2 ;
3 [label="KRT14 <= -0.178\ngini = 0.088\nsamples = 137\nvalue = [10, 208]\nclass = Metastatic", fillcolor="#43a2e6"] ;
1 -> 3 ;
4 [label="KRT17 <= -0.141\ngini = 0.02\nsamples = 125\nvalue = [2, 195]\nclass = Metastatic", fillcolor="#3b9ee5"] ;
3 -> 4 ;
5 [label="gini = 0.0\nsamples = 105\nvalue = [0, 173]\nclass = Metastatic", fillcolor="#399de5"] ;
4 -> 5 ;
6 [label="gini = 0.153\nsamples = 20\nvalue = [2, 22]\nclass = Metastatic", fillcolor="#4ba6e7"] ;
4 -> 6 ;
7 [label="gini = 0.472\nsamples = 12\nvalue = [8, 13]\nclass = Metastatic", fillcolor="#b3d9f5"] ;
3 -> 7 ;
8 [label="KRT17 <= -0.072\ngini = 0.33\nsamples = 31\nvalue = [38, 10]\nclass = Primary Tumor", fillcolor="#eca26d"] ;
0 -> 8 [labeldistance=2.5, labelangle=-45, headlabel="False"] ;
9 [label="gini = 0.48\nsamples = 18\nvalue = [15, 10]\nclass = Primary Tumor", fillcolor="#f6d5bd"] ;
8 -> 9 ;
10 [label="gini = 0.0\nsamples = 13\nvalue = [23, 0]\nclass = Primary Tumor", fillcolor="#e58139"] ;
8 -> 10 ;
}