digraph Tree {
node [shape=box, style="filled", color="black"] ;
0 [label="CLEC2A <= -0.113\ngini = 0.373\nsamples = 186\nvalue = [71, 215]\nclass = Metastatic", fillcolor="#7abdee"] ;
1 [label="C7 <= -0.435\ngini = 0.193\nsamples = 152\nvalue = [25, 206]\nclass = Metastatic", fillcolor="#51a9e8"] ;
0 -> 1 [labeldistance=2.5, labelangle=45, headlabel="True"] ;
2 [label="gini = 0.444\nsamples = 16\nvalue = [16, 8]\nclass = Primary Tumor", fillcolor="#f2c09c"] ;
1 -> 2 ;
3 [label="WFDC5 <= -0.192\ngini = 0.083\nsamples = 136\nvalue = [9, 198]\nclass = Metastatic", fillcolor="#42a1e6"] ;
1 -> 3 ;
4 [label="C7 <= -0.427\ngini = 0.042\nsamples = 122\nvalue = [4, 184]\nclass = Metastatic", fillcolor="#3d9fe6"] ;
3 -> 4 ;
5 [label="gini = 0.287\nsamples = 14\nvalue = [4, 19]\nclass = Metastatic", fillcolor="#63b2ea"] ;
4 -> 5 ;
6 [label="gini = 0.0\nsamples = 108\nvalue = [0, 165]\nclass = Metastatic", fillcolor="#399de5"] ;
4 -> 6 ;
7 [label="gini = 0.388\nsamples = 14\nvalue = [5, 14]\nclass = Metastatic", fillcolor="#80c0ee"] ;
3 -> 7 ;
8 [label="gender_male <= -0.276\ngini = 0.274\nsamples = 34\nvalue = [46, 9]\nclass = Primary Tumor", fillcolor="#ea9a60"] ;
0 -> 8 [labeldistance=2.5, labelangle=-45, headlabel="False"] ;
9 [label="gini = 0.083\nsamples = 17\nvalue = [22, 1]\nclass = Primary Tumor", fillcolor="#e68742"] ;
8 -> 9 ;
10 [label="gini = 0.375\nsamples = 17\nvalue = [24, 8]\nclass = Primary Tumor", fillcolor="#eeab7b"] ;
8 -> 10 ;
}