digraph Tree {
node [shape=box, style="filled", color="black"] ;
0 [label="S100A7A <= -0.136\ngini = 0.373\nsamples = 173\nvalue = [71, 215]\nclass = Metastatic", fillcolor="#7abdee"] ;
1 [label="C7 <= -0.435\ngini = 0.25\nsamples = 152\nvalue = [36, 210]\nclass = Metastatic", fillcolor="#5baee9"] ;
0 -> 1 [labeldistance=2.5, labelangle=45, headlabel="True"] ;
2 [label="gini = 0.478\nsamples = 17\nvalue = [20, 13]\nclass = Primary Tumor", fillcolor="#f6d3ba"] ;
1 -> 2 ;
3 [label="age_at_index <= 1.096\ngini = 0.139\nsamples = 135\nvalue = [16, 197]\nclass = Metastatic", fillcolor="#49a5e7"] ;
1 -> 3 ;
4 [label="KRTDAP <= -0.184\ngini = 0.043\nsamples = 117\nvalue = [4, 177]\nclass = Metastatic", fillcolor="#3d9fe6"] ;
3 -> 4 ;
5 [label="KRT17 <= -0.141\ngini = 0.013\nsamples = 98\nvalue = [1, 153]\nclass = Metastatic", fillcolor="#3a9ee5"] ;
4 -> 5 ;
6 [label="gini = 0.0\nsamples = 86\nvalue = [0, 137]\nclass = Metastatic", fillcolor="#399de5"] ;
5 -> 6 ;
7 [label="gini = 0.111\nsamples = 12\nvalue = [1, 16]\nclass = Metastatic", fillcolor="#45a3e7"] ;
5 -> 7 ;
8 [label="gini = 0.198\nsamples = 19\nvalue = [3, 24]\nclass = Metastatic", fillcolor="#52a9e8"] ;
4 -> 8 ;
9 [label="gini = 0.469\nsamples = 18\nvalue = [12, 20]\nclass = Metastatic", fillcolor="#b0d8f5"] ;
3 -> 9 ;
10 [label="gini = 0.219\nsamples = 21\nvalue = [35, 5]\nclass = Primary Tumor", fillcolor="#e99355"] ;
0 -> 10 [labeldistance=2.5, labelangle=-45, headlabel="False"] ;
}