digraph Tree {
node [shape=box, style="filled", color="black"] ;
0 [label="KRT6B <= -0.151\ngini = 0.336\nsamples = 185\nvalue = [61, 225]\nclass = Metastatic", fillcolor="#6fb8ec"] ;
1 [label="treatments_radiation_treatment_or_therapy_yes <= 0.399\ngini = 0.129\nsamples = 143\nvalue = [15, 202]\nclass = Metastatic", fillcolor="#48a4e7"] ;
0 -> 1 [labeldistance=2.5, labelangle=45, headlabel="True"] ;
2 [label="C7 <= -0.435\ngini = 0.204\nsamples = 88\nvalue = [15, 115]\nclass = Metastatic", fillcolor="#53aae8"] ;
1 -> 2 ;
3 [label="gini = 0.43\nsamples = 12\nvalue = [11, 5]\nclass = Primary Tumor", fillcolor="#f1ba93"] ;
2 -> 3 ;
4 [label="C7 <= -0.404\ngini = 0.068\nsamples = 76\nvalue = [4, 110]\nclass = Metastatic", fillcolor="#40a1e6"] ;
2 -> 4 ;
5 [label="gini = 0.245\nsamples = 16\nvalue = [3, 18]\nclass = Metastatic", fillcolor="#5aade9"] ;
4 -> 5 ;
6 [label="KRT17 <= -0.141\ngini = 0.021\nsamples = 60\nvalue = [1, 92]\nclass = Metastatic", fillcolor="#3b9ee5"] ;
4 -> 6 ;
7 [label="gini = 0.0\nsamples = 44\nvalue = [0, 71]\nclass = Metastatic", fillcolor="#399de5"] ;
6 -> 7 ;
8 [label="gini = 0.087\nsamples = 16\nvalue = [1, 21]\nclass = Metastatic", fillcolor="#42a2e6"] ;
6 -> 8 ;
9 [label="gini = 0.0\nsamples = 55\nvalue = [0, 87]\nclass = Metastatic", fillcolor="#399de5"] ;
1 -> 9 ;
10 [label="S100A7A <= -0.136\ngini = 0.444\nsamples = 42\nvalue = [46, 23]\nclass = Primary Tumor", fillcolor="#f2c09c"] ;
0 -> 10 [labeldistance=2.5, labelangle=-45, headlabel="False"] ;
11 [label="gini = 0.497\nsamples = 23\nvalue = [17, 20]\nclass = Metastatic", fillcolor="#e1f0fb"] ;
10 -> 11 ;
12 [label="gini = 0.17\nsamples = 19\nvalue = [29, 3]\nclass = Primary Tumor", fillcolor="#e88e4d"] ;
10 -> 12 ;
}