digraph Tree {
node [shape=box, style="filled", color="black"] ;
0 [label="KRT17 <= -0.133\ngini = 0.347\nsamples = 174\nvalue = [64, 222]\nclass = Metastatic", fillcolor="#72b9ec"] ;
1 [label="C7 <= -0.435\ngini = 0.167\nsamples = 146\nvalue = [22, 218]\nclass = Metastatic", fillcolor="#4da7e8"] ;
0 -> 1 [labeldistance=2.5, labelangle=45, headlabel="True"] ;
2 [label="gini = 0.408\nsamples = 12\nvalue = [15, 6]\nclass = Primary Tumor", fillcolor="#efb388"] ;
1 -> 2 ;
3 [label="S100A7A <= -0.145\ngini = 0.062\nsamples = 134\nvalue = [7, 212]\nclass = Metastatic", fillcolor="#40a0e6"] ;
1 -> 3 ;
4 [label="KRT17 <= -0.141\ngini = 0.032\nsamples = 114\nvalue = [3, 182]\nclass = Metastatic", fillcolor="#3c9fe5"] ;
3 -> 4 ;
5 [label="gini = 0.231\nsamples = 12\nvalue = [2, 13]\nclass = Metastatic", fillcolor="#57ace9"] ;
4 -> 5 ;
6 [label="PVRL4 <= -0.177\ngini = 0.012\nsamples = 102\nvalue = [1, 169]\nclass = Metastatic", fillcolor="#3a9ee5"] ;
4 -> 6 ;
7 [label="gini = 0.0\nsamples = 90\nvalue = [0, 153]\nclass = Metastatic", fillcolor="#399de5"] ;
6 -> 7 ;
8 [label="gini = 0.111\nsamples = 12\nvalue = [1, 16]\nclass = Metastatic", fillcolor="#45a3e7"] ;
6 -> 8 ;
9 [label="gini = 0.208\nsamples = 20\nvalue = [4, 30]\nclass = Metastatic", fillcolor="#53aae8"] ;
3 -> 9 ;
10 [label="CLEC2A <= 0.004\ngini = 0.159\nsamples = 28\nvalue = [42, 4]\nclass = Primary Tumor", fillcolor="#e78d4c"] ;
0 -> 10 [labeldistance=2.5, labelangle=-45, headlabel="False"] ;
11 [label="gini = 0.266\nsamples = 12\nvalue = [16, 3]\nclass = Primary Tumor", fillcolor="#ea995e"] ;
10 -> 11 ;
12 [label="gini = 0.071\nsamples = 16\nvalue = [26, 1]\nclass = Primary Tumor", fillcolor="#e68641"] ;
10 -> 12 ;
}