digraph Tree {
node [shape=box, style="filled", color="black"] ;
0 [label="CLEC2A <= -0.11\ngini = 0.38\nsamples = 181\nvalue = [73, 213]\nclass = Metastatic", fillcolor="#7dbfee"] ;
1 [label="C7 <= -0.436\ngini = 0.214\nsamples = 145\nvalue = [28, 202]\nclass = Metastatic", fillcolor="#54abe9"] ;
0 -> 1 [labeldistance=2.5, labelangle=45, headlabel="True"] ;
2 [label="gini = 0.351\nsamples = 13\nvalue = [17, 5]\nclass = Primary Tumor", fillcolor="#eda673"] ;
1 -> 2 ;
3 [label="C7 <= -0.425\ngini = 0.1\nsamples = 132\nvalue = [11, 197]\nclass = Metastatic", fillcolor="#44a2e6"] ;
1 -> 3 ;
4 [label="gini = 0.412\nsamples = 21\nvalue = [9, 22]\nclass = Metastatic", fillcolor="#8ac5f0"] ;
3 -> 4 ;
5 [label="KRT17 <= -0.141\ngini = 0.022\nsamples = 111\nvalue = [2, 175]\nclass = Metastatic", fillcolor="#3b9ee5"] ;
3 -> 5 ;
6 [label="gini = 0.0\nsamples = 78\nvalue = [0, 126]\nclass = Metastatic", fillcolor="#399de5"] ;
5 -> 6 ;
7 [label="age_at_index <= -0.095\ngini = 0.075\nsamples = 33\nvalue = [2, 49]\nclass = Metastatic", fillcolor="#41a1e6"] ;
5 -> 7 ;
8 [label="gini = 0.0\nsamples = 19\nvalue = [0, 31]\nclass = Metastatic", fillcolor="#399de5"] ;
7 -> 8 ;
9 [label="gini = 0.18\nsamples = 14\nvalue = [2, 18]\nclass = Metastatic", fillcolor="#4fa8e8"] ;
7 -> 9 ;
10 [label="C7 <= -0.426\ngini = 0.316\nsamples = 36\nvalue = [45, 11]\nclass = Primary Tumor", fillcolor="#eba069"] ;
0 -> 10 [labeldistance=2.5, labelangle=-45, headlabel="False"] ;
11 [label="S100A7 <= -0.133\ngini = 0.097\nsamples = 24\nvalue = [37, 2]\nclass = Primary Tumor", fillcolor="#e68844"] ;
10 -> 11 ;
12 [label="gini = 0.0\nsamples = 12\nvalue = [21, 0]\nclass = Primary Tumor", fillcolor="#e58139"] ;
11 -> 12 ;
13 [label="gini = 0.198\nsamples = 12\nvalue = [16, 2]\nclass = Primary Tumor", fillcolor="#e89152"] ;
11 -> 13 ;
14 [label="gini = 0.498\nsamples = 12\nvalue = [8, 9]\nclass = Metastatic", fillcolor="#e9f4fc"] ;
10 -> 14 ;
}