digraph Tree {
node [shape=box, style="filled", color="black"] ;
0 [label="CLEC2A <= -0.113\ngini = 0.323\nsamples = 183\nvalue = [58, 228]\nclass = Metastatic", fillcolor="#6bb6ec"] ;
1 [label="C7 <= -0.435\ngini = 0.183\nsamples = 154\nvalue = [25, 221]\nclass = Metastatic", fillcolor="#4fa8e8"] ;
0 -> 1 [labeldistance=2.5, labelangle=45, headlabel="True"] ;
2 [label="gini = 0.457\nsamples = 12\nvalue = [11, 6]\nclass = Primary Tumor", fillcolor="#f3c6a5"] ;
1 -> 2 ;
3 [label="age_at_index <= 1.096\ngini = 0.115\nsamples = 142\nvalue = [14, 215]\nclass = Metastatic", fillcolor="#46a3e7"] ;
1 -> 3 ;
4 [label="C7 <= -0.405\ngini = 0.059\nsamples = 124\nvalue = [6, 190]\nclass = Metastatic", fillcolor="#3fa0e6"] ;
3 -> 4 ;
5 [label="treatments_radiation_treatment_or_therapy_yes <= 0.399\ngini = 0.177\nsamples = 33\nvalue = [5, 46]\nclass = Metastatic", fillcolor="#4fa8e8"] ;
4 -> 5 ;
6 [label="gini = 0.293\nsamples = 19\nvalue = [5, 23]\nclass = Metastatic", fillcolor="#64b2eb"] ;
5 -> 6 ;
7 [label="gini = 0.0\nsamples = 14\nvalue = [0, 23]\nclass = Metastatic", fillcolor="#399de5"] ;
5 -> 7 ;
8 [label="KRTDAP <= -0.183\ngini = 0.014\nsamples = 91\nvalue = [1, 144]\nclass = Metastatic", fillcolor="#3a9ee5"] ;
4 -> 8 ;
9 [label="gini = 0.0\nsamples = 79\nvalue = [0, 129]\nclass = Metastatic", fillcolor="#399de5"] ;
8 -> 9 ;
10 [label="gini = 0.117\nsamples = 12\nvalue = [1, 15]\nclass = Metastatic", fillcolor="#46a4e7"] ;
8 -> 10 ;
11 [label="gini = 0.367\nsamples = 18\nvalue = [8, 25]\nclass = Metastatic", fillcolor="#78bced"] ;
3 -> 11 ;
12 [label="S100A7A <= -0.136\ngini = 0.289\nsamples = 29\nvalue = [33, 7]\nclass = Primary Tumor", fillcolor="#eb9c63"] ;
0 -> 12 [labeldistance=2.5, labelangle=-45, headlabel="False"] ;
13 [label="gini = 0.42\nsamples = 14\nvalue = [14, 6]\nclass = Primary Tumor", fillcolor="#f0b78e"] ;
12 -> 13 ;
14 [label="gini = 0.095\nsamples = 15\nvalue = [19, 1]\nclass = Primary Tumor", fillcolor="#e68843"] ;
12 -> 14 ;
}