digraph Tree {
node [shape=box, style="filled", color="black"] ;
0 [label="KRT6B <= -0.151\ngini = 0.336\nsamples = 171\nvalue = [61, 225]\nclass = Metastatic", fillcolor="#6fb8ec"] ;
1 [label="S100A7A <= -0.145\ngini = 0.163\nsamples = 130\nvalue = [20, 203]\nclass = Metastatic", fillcolor="#4da7e8"] ;
0 -> 1 [labeldistance=2.5, labelangle=45, headlabel="True"] ;
2 [label="C7 <= -0.433\ngini = 0.115\nsamples = 112\nvalue = [12, 184]\nclass = Metastatic", fillcolor="#46a3e7"] ;
1 -> 2 ;
3 [label="gini = 0.473\nsamples = 15\nvalue = [10, 16]\nclass = Metastatic", fillcolor="#b5daf5"] ;
2 -> 3 ;
4 [label="KRT17 <= -0.141\ngini = 0.023\nsamples = 97\nvalue = [2, 168]\nclass = Metastatic", fillcolor="#3b9ee5"] ;
2 -> 4 ;
5 [label="gini = 0.0\nsamples = 85\nvalue = [0, 155]\nclass = Metastatic", fillcolor="#399de5"] ;
4 -> 5 ;
6 [label="gini = 0.231\nsamples = 12\nvalue = [2, 13]\nclass = Metastatic", fillcolor="#57ace9"] ;
4 -> 6 ;
7 [label="gini = 0.417\nsamples = 18\nvalue = [8, 19]\nclass = Metastatic", fillcolor="#8cc6f0"] ;
1 -> 7 ;
8 [label="KRT17 <= -0.104\ngini = 0.455\nsamples = 41\nvalue = [41, 22]\nclass = Primary Tumor", fillcolor="#f3c5a3"] ;
0 -> 8 [labeldistance=2.5, labelangle=-45, headlabel="False"] ;
9 [label="C7 <= -0.413\ngini = 0.482\nsamples = 25\nvalue = [15, 22]\nclass = Metastatic", fillcolor="#c0e0f7"] ;
8 -> 9 ;
10 [label="gini = 0.48\nsamples = 12\nvalue = [9, 6]\nclass = Primary Tumor", fillcolor="#f6d5bd"] ;
9 -> 10 ;
11 [label="gini = 0.397\nsamples = 13\nvalue = [6, 16]\nclass = Metastatic", fillcolor="#83c2ef"] ;
9 -> 11 ;
12 [label="gini = 0.0\nsamples = 16\nvalue = [26, 0]\nclass = Primary Tumor", fillcolor="#e58139"] ;
8 -> 12 ;
}