digraph Tree {
node [shape=box, style="filled", color="black"] ;
0 [label="CLEC2A <= -0.11\ngini = 0.355\nsamples = 187\nvalue = [66, 220]\nclass = Metastatic", fillcolor="#74baed"] ;
1 [label="KRTDAP <= -0.181\ngini = 0.145\nsamples = 151\nvalue = [18, 210]\nclass = Metastatic", fillcolor="#4aa5e7"] ;
0 -> 1 [labeldistance=2.5, labelangle=45, headlabel="True"] ;
2 [label="KRT17 <= -0.141\ngini = 0.099\nsamples = 139\nvalue = [11, 200]\nclass = Metastatic", fillcolor="#44a2e6"] ;
1 -> 2 ;
3 [label="age_at_index <= 1.096\ngini = 0.045\nsamples = 115\nvalue = [4, 171]\nclass = Metastatic", fillcolor="#3e9fe6"] ;
2 -> 3 ;
4 [label="KRTDAP <= -0.184\ngini = 0.026\nsamples = 98\nvalue = [2, 150]\nclass = Metastatic", fillcolor="#3c9ee5"] ;
3 -> 4 ;
5 [label="C7 <= -0.43\ngini = 0.015\nsamples = 86\nvalue = [1, 131]\nclass = Metastatic", fillcolor="#3b9ee5"] ;
4 -> 5 ;
6 [label="gini = 0.111\nsamples = 12\nvalue = [1, 16]\nclass = Metastatic", fillcolor="#45a3e7"] ;
5 -> 6 ;
7 [label="gini = 0.0\nsamples = 74\nvalue = [0, 115]\nclass = Metastatic", fillcolor="#399de5"] ;
5 -> 7 ;
8 [label="gini = 0.095\nsamples = 12\nvalue = [1, 19]\nclass = Metastatic", fillcolor="#43a2e6"] ;
4 -> 8 ;
9 [label="gini = 0.159\nsamples = 17\nvalue = [2, 21]\nclass = Metastatic", fillcolor="#4ca6e7"] ;
3 -> 9 ;
10 [label="S100A7 <= -0.193\ngini = 0.313\nsamples = 24\nvalue = [7, 29]\nclass = Metastatic", fillcolor="#69b5eb"] ;
2 -> 10 ;
11 [label="gini = 0.484\nsamples = 12\nvalue = [7, 10]\nclass = Metastatic", fillcolor="#c4e2f7"] ;
10 -> 11 ;
12 [label="gini = 0.0\nsamples = 12\nvalue = [0, 19]\nclass = Metastatic", fillcolor="#399de5"] ;
10 -> 12 ;
13 [label="gini = 0.484\nsamples = 12\nvalue = [7, 10]\nclass = Metastatic", fillcolor="#c4e2f7"] ;
1 -> 13 ;
14 [label="C7 <= -0.414\ngini = 0.285\nsamples = 36\nvalue = [48, 10]\nclass = Primary Tumor", fillcolor="#ea9b62"] ;
0 -> 14 [labeldistance=2.5, labelangle=-45, headlabel="False"] ;
15 [label="bmi <= -0.051\ngini = 0.049\nsamples = 24\nvalue = [39, 1]\nclass = Primary Tumor", fillcolor="#e6843e"] ;
14 -> 15 ;
16 [label="gini = 0.117\nsamples = 12\nvalue = [15, 1]\nclass = Primary Tumor", fillcolor="#e78946"] ;
15 -> 16 ;
17 [label="gini = 0.0\nsamples = 12\nvalue = [24, 0]\nclass = Primary Tumor", fillcolor="#e58139"] ;
15 -> 17 ;
18 [label="gini = 0.5\nsamples = 12\nvalue = [9, 9]\nclass = Primary Tumor", fillcolor="#ffffff"] ;
14 -> 18 ;
}