digraph Tree {
node [shape=box, style="filled", color="black"] ;
0 [label="C7 <= -0.426\ngini = 0.38\nsamples = 184\nvalue = [73, 213]\nclass = Metastatic", fillcolor="#7dbfee"] ;
1 [label="CLEC2A <= -0.167\ngini = 0.453\nsamples = 58\nvalue = [62, 33]\nclass = Primary Tumor", fillcolor="#f3c4a2"] ;
0 -> 1 [labeldistance=2.5, labelangle=45, headlabel="True"] ;
2 [label="KRT17 <= -0.141\ngini = 0.484\nsamples = 35\nvalue = [23, 33]\nclass = Metastatic", fillcolor="#c3e1f7"] ;
1 -> 2 ;
3 [label="gini = 0.375\nsamples = 19\nvalue = [9, 27]\nclass = Metastatic", fillcolor="#7bbeee"] ;
2 -> 3 ;
4 [label="gini = 0.42\nsamples = 16\nvalue = [14, 6]\nclass = Primary Tumor", fillcolor="#f0b78e"] ;
2 -> 4 ;
5 [label="gini = 0.0\nsamples = 23\nvalue = [39, 0]\nclass = Primary Tumor", fillcolor="#e58139"] ;
1 -> 5 ;
6 [label="KRT17 <= -0.136\ngini = 0.109\nsamples = 126\nvalue = [11, 180]\nclass = Metastatic", fillcolor="#45a3e7"] ;
0 -> 6 [labeldistance=2.5, labelangle=-45, headlabel="False"] ;
7 [label="KRTDAP <= -0.184\ngini = 0.012\nsamples = 111\nvalue = [1, 163]\nclass = Metastatic", fillcolor="#3a9ee5"] ;
6 -> 7 ;
8 [label="gini = 0.0\nsamples = 92\nvalue = [0, 138]\nclass = Metastatic", fillcolor="#399de5"] ;
7 -> 8 ;
9 [label="gini = 0.074\nsamples = 19\nvalue = [1, 25]\nclass = Metastatic", fillcolor="#41a1e6"] ;
7 -> 9 ;
10 [label="gini = 0.466\nsamples = 15\nvalue = [10, 17]\nclass = Metastatic", fillcolor="#add7f4"] ;
6 -> 10 ;
}