digraph Tree {
node [shape=box, style="filled", color="black"] ;
0 [label="C7 <= -0.425\ngini = 0.355\nsamples = 184\nvalue = [66, 220]\nclass = Metastatic", fillcolor="#74baed"] ;
1 [label="CLEC2A <= -0.167\ngini = 0.433\nsamples = 59\nvalue = [58, 27]\nclass = Primary Tumor", fillcolor="#f1bc95"] ;
0 -> 1 [labeldistance=2.5, labelangle=45, headlabel="True"] ;
2 [label="S100A7 <= -0.193\ngini = 0.492\nsamples = 34\nvalue = [21, 27]\nclass = Metastatic", fillcolor="#d3e9f9"] ;
1 -> 2 ;
3 [label="gini = 0.383\nsamples = 22\nvalue = [8, 23]\nclass = Metastatic", fillcolor="#7ebfee"] ;
2 -> 3 ;
4 [label="gini = 0.36\nsamples = 12\nvalue = [13, 4]\nclass = Primary Tumor", fillcolor="#eda876"] ;
2 -> 4 ;
5 [label="gini = 0.0\nsamples = 25\nvalue = [37, 0]\nclass = Primary Tumor", fillcolor="#e58139"] ;
1 -> 5 ;
6 [label="KRT17 <= -0.138\ngini = 0.076\nsamples = 125\nvalue = [8, 193]\nclass = Metastatic", fillcolor="#41a1e6"] ;
0 -> 6 [labeldistance=2.5, labelangle=-45, headlabel="False"] ;
7 [label="KRT17 <= -0.141\ngini = 0.011\nsamples = 110\nvalue = [1, 177]\nclass = Metastatic", fillcolor="#3a9ee5"] ;
6 -> 7 ;
8 [label="gini = 0.0\nsamples = 85\nvalue = [0, 134]\nclass = Metastatic", fillcolor="#399de5"] ;
7 -> 8 ;
9 [label="S100A7 <= -0.193\ngini = 0.044\nsamples = 25\nvalue = [1, 43]\nclass = Metastatic", fillcolor="#3e9fe6"] ;
7 -> 9 ;
10 [label="gini = 0.105\nsamples = 12\nvalue = [1, 17]\nclass = Metastatic", fillcolor="#45a3e7"] ;
9 -> 10 ;
11 [label="gini = 0.0\nsamples = 13\nvalue = [0, 26]\nclass = Metastatic", fillcolor="#399de5"] ;
9 -> 11 ;
12 [label="gini = 0.423\nsamples = 15\nvalue = [7, 16]\nclass = Metastatic", fillcolor="#90c8f0"] ;
6 -> 12 ;
}