digraph Tree {
node [shape=box, style="filled", color="black"] ;
0 [label="CLEC2A <= -0.111\ngini = 0.393\nsamples = 184\nvalue = [77, 209]\nclass = Metastatic", fillcolor="#82c1ef"] ;
1 [label="KRT17 <= -0.136\ngini = 0.192\nsamples = 146\nvalue = [24, 199]\nclass = Metastatic", fillcolor="#51a9e8"] ;
0 -> 1 [labeldistance=2.5, labelangle=45, headlabel="True"] ;
2 [label="KRT17 <= -0.141\ngini = 0.11\nsamples = 134\nvalue = [12, 194]\nclass = Metastatic", fillcolor="#45a3e7"] ;
1 -> 2 ;
3 [label="PVRL4 <= -0.259\ngini = 0.035\nsamples = 113\nvalue = [3, 167]\nclass = Metastatic", fillcolor="#3d9fe5"] ;
2 -> 3 ;
4 [label="treatments_radiation_treatment_or_therapy_yes <= 0.399\ngini = 0.088\nsamples = 42\nvalue = [3, 62]\nclass = Metastatic", fillcolor="#43a2e6"] ;
3 -> 4 ;
5 [label="gini = 0.165\nsamples = 23\nvalue = [3, 30]\nclass = Metastatic", fillcolor="#4da7e8"] ;
4 -> 5 ;
6 [label="gini = 0.0\nsamples = 19\nvalue = [0, 32]\nclass = Metastatic", fillcolor="#399de5"] ;
4 -> 6 ;
7 [label="gini = 0.0\nsamples = 71\nvalue = [0, 105]\nclass = Metastatic", fillcolor="#399de5"] ;
3 -> 7 ;
8 [label="gini = 0.375\nsamples = 21\nvalue = [9, 27]\nclass = Metastatic", fillcolor="#7bbeee"] ;
2 -> 8 ;
9 [label="gini = 0.415\nsamples = 12\nvalue = [12, 5]\nclass = Primary Tumor", fillcolor="#f0b58b"] ;
1 -> 9 ;
10 [label="C7 <= -0.414\ngini = 0.267\nsamples = 38\nvalue = [53, 10]\nclass = Primary Tumor", fillcolor="#ea995e"] ;
0 -> 10 [labeldistance=2.5, labelangle=-45, headlabel="False"] ;
11 [label="KRT17 <= -0.075\ngini = 0.085\nsamples = 26\nvalue = [43, 2]\nclass = Primary Tumor", fillcolor="#e68742"] ;
10 -> 11 ;
12 [label="gini = 0.0\nsamples = 14\nvalue = [26, 0]\nclass = Primary Tumor", fillcolor="#e58139"] ;
11 -> 12 ;
13 [label="gini = 0.188\nsamples = 12\nvalue = [17, 2]\nclass = Primary Tumor", fillcolor="#e89050"] ;
11 -> 13 ;
14 [label="gini = 0.494\nsamples = 12\nvalue = [10, 8]\nclass = Primary Tumor", fillcolor="#fae6d7"] ;
10 -> 14 ;
}