digraph Tree {
node [shape=box, style="filled", color="black"] ;
0 [label="KRT17 <= -0.093\ngini = 0.366\nsamples = 183\nvalue = [69, 217]\nclass = Metastatic", fillcolor="#78bced"] ;
1 [label="CLEC2A <= -0.164\ngini = 0.277\nsamples = 164\nvalue = [43, 216]\nclass = Metastatic", fillcolor="#60b1ea"] ;
0 -> 1 [labeldistance=2.5, labelangle=45, headlabel="True"] ;
2 [label="C7 <= -0.435\ngini = 0.195\nsamples = 146\nvalue = [25, 204]\nclass = Metastatic", fillcolor="#51a9e8"] ;
1 -> 2 ;
3 [label="gini = 0.444\nsamples = 12\nvalue = [12, 6]\nclass = Primary Tumor", fillcolor="#f2c09c"] ;
2 -> 3 ;
4 [label="KRTDAP <= -0.184\ngini = 0.116\nsamples = 134\nvalue = [13, 198]\nclass = Metastatic", fillcolor="#46a3e7"] ;
2 -> 4 ;
5 [label="age_at_index <= 1.096\ngini = 0.045\nsamples = 107\nvalue = [4, 168]\nclass = Metastatic", fillcolor="#3e9fe6"] ;
4 -> 5 ;
6 [label="gini = 0.0\nsamples = 93\nvalue = [0, 149]\nclass = Metastatic", fillcolor="#399de5"] ;
5 -> 6 ;
7 [label="gini = 0.287\nsamples = 14\nvalue = [4, 19]\nclass = Metastatic", fillcolor="#63b2ea"] ;
5 -> 7 ;
8 [label="KRT6B <= -0.151\ngini = 0.355\nsamples = 27\nvalue = [9, 30]\nclass = Metastatic", fillcolor="#74baed"] ;
4 -> 8 ;
9 [label="gini = 0.465\nsamples = 12\nvalue = [7, 12]\nclass = Metastatic", fillcolor="#acd6f4"] ;
8 -> 9 ;
10 [label="gini = 0.18\nsamples = 15\nvalue = [2, 18]\nclass = Metastatic", fillcolor="#4fa8e8"] ;
8 -> 10 ;
11 [label="gini = 0.48\nsamples = 18\nvalue = [18, 12]\nclass = Primary Tumor", fillcolor="#f6d5bd"] ;
1 -> 11 ;
12 [label="gini = 0.071\nsamples = 19\nvalue = [26, 1]\nclass = Primary Tumor", fillcolor="#e68641"] ;
0 -> 12 [labeldistance=2.5, labelangle=-45, headlabel="False"] ;
}