digraph Tree {
node [shape=box, style="filled", color="black"] ;
0 [label="KRT17 <= -0.136\ngini = 0.34\nsamples = 191\nvalue = [62, 224]\nclass = Metastatic", fillcolor="#70b8ec"] ;
1 [label="C7 <= -0.435\ngini = 0.184\nsamples = 154\nvalue = [24, 210]\nclass = Metastatic", fillcolor="#50a8e8"] ;
0 -> 1 [labeldistance=2.5, labelangle=45, headlabel="True"] ;
2 [label="gini = 0.397\nsamples = 15\nvalue = [16, 6]\nclass = Primary Tumor", fillcolor="#efb083"] ;
1 -> 2 ;
3 [label="KRT17 <= -0.141\ngini = 0.073\nsamples = 139\nvalue = [8, 204]\nclass = Metastatic", fillcolor="#41a1e6"] ;
1 -> 3 ;
4 [label="gini = 0.308\nsamples = 12\nvalue = [4, 17]\nclass = Metastatic", fillcolor="#68b4eb"] ;
3 -> 4 ;
5 [label="C7 <= -0.428\ngini = 0.041\nsamples = 127\nvalue = [4, 187]\nclass = Metastatic", fillcolor="#3d9fe6"] ;
3 -> 5 ;
6 [label="gini = 0.291\nsamples = 15\nvalue = [3, 14]\nclass = Metastatic", fillcolor="#63b2eb"] ;
5 -> 6 ;
7 [label="KRTDAP <= -0.183\ngini = 0.011\nsamples = 112\nvalue = [1, 173]\nclass = Metastatic", fillcolor="#3a9ee5"] ;
5 -> 7 ;
8 [label="gini = 0.0\nsamples = 100\nvalue = [0, 156]\nclass = Metastatic", fillcolor="#399de5"] ;
7 -> 8 ;
9 [label="gini = 0.105\nsamples = 12\nvalue = [1, 17]\nclass = Metastatic", fillcolor="#45a3e7"] ;
7 -> 9 ;
10 [label="KRT17 <= -0.104\ngini = 0.393\nsamples = 37\nvalue = [38, 14]\nclass = Primary Tumor", fillcolor="#efaf82"] ;
0 -> 10 [labeldistance=2.5, labelangle=-45, headlabel="False"] ;
11 [label="gini = 0.499\nsamples = 16\nvalue = [11, 12]\nclass = Metastatic", fillcolor="#eff7fd"] ;
10 -> 11 ;
12 [label="gini = 0.128\nsamples = 21\nvalue = [27, 2]\nclass = Primary Tumor", fillcolor="#e78a48"] ;
10 -> 12 ;
}