digraph Tree {
node [shape=box, style="filled", color="black"] ;
0 [label="KRT17 <= -0.104\ngini = 0.38\nsamples = 188\nvalue = [73, 213]\nclass = Metastatic", fillcolor="#7dbfee"] ;
1 [label="C7 <= -0.425\ngini = 0.24\nsamples = 167\nvalue = [34, 210]\nclass = Metastatic", fillcolor="#59ade9"] ;
0 -> 1 [labeldistance=2.5, labelangle=45, headlabel="True"] ;
2 [label="KRT17 <= -0.14\ngini = 0.497\nsamples = 38\nvalue = [24, 28]\nclass = Metastatic", fillcolor="#e3f1fb"] ;
1 -> 2 ;
3 [label="C7 <= -0.434\ngini = 0.431\nsamples = 25\nvalue = [11, 24]\nclass = Metastatic", fillcolor="#94caf1"] ;
2 -> 3 ;
4 [label="gini = 0.498\nsamples = 12\nvalue = [8, 9]\nclass = Metastatic", fillcolor="#e9f4fc"] ;
3 -> 4 ;
5 [label="gini = 0.278\nsamples = 13\nvalue = [3, 15]\nclass = Metastatic", fillcolor="#61b1ea"] ;
3 -> 5 ;
6 [label="gini = 0.36\nsamples = 13\nvalue = [13, 4]\nclass = Primary Tumor", fillcolor="#eda876"] ;
2 -> 6 ;
7 [label="KRTDAP <= -0.184\ngini = 0.099\nsamples = 129\nvalue = [10, 182]\nclass = Metastatic", fillcolor="#44a2e6"] ;
1 -> 7 ;
8 [label="KRT6B <= -0.152\ngini = 0.026\nsamples = 101\nvalue = [2, 151]\nclass = Metastatic", fillcolor="#3c9ee5"] ;
7 -> 8 ;
9 [label="gini = 0.0\nsamples = 89\nvalue = [0, 134]\nclass = Metastatic", fillcolor="#399de5"] ;
8 -> 9 ;
10 [label="gini = 0.188\nsamples = 12\nvalue = [2, 17]\nclass = Metastatic", fillcolor="#50a9e8"] ;
8 -> 10 ;
11 [label="KRTDAP <= -0.182\ngini = 0.326\nsamples = 28\nvalue = [8, 31]\nclass = Metastatic", fillcolor="#6cb6ec"] ;
7 -> 11 ;
12 [label="gini = 0.465\nsamples = 14\nvalue = [7, 12]\nclass = Metastatic", fillcolor="#acd6f4"] ;
11 -> 12 ;
13 [label="gini = 0.095\nsamples = 14\nvalue = [1, 19]\nclass = Metastatic", fillcolor="#43a2e6"] ;
11 -> 13 ;
14 [label="gini = 0.133\nsamples = 21\nvalue = [39, 3]\nclass = Primary Tumor", fillcolor="#e78b48"] ;
0 -> 14 [labeldistance=2.5, labelangle=-45, headlabel="False"] ;
}