digraph Tree {
node [shape=box, style="filled", color="black"] ;
0 [label="C7 <= -0.427\ngini = 0.366\nsamples = 185\nvalue = [69, 217]\nclass = Metastatic", fillcolor="#78bced"] ;
1 [label="CLEC2A <= -0.167\ngini = 0.462\nsamples = 61\nvalue = [60, 34]\nclass = Primary Tumor", fillcolor="#f4c8a9"] ;
0 -> 1 [labeldistance=2.5, labelangle=45, headlabel="True"] ;
2 [label="C7 <= -0.435\ngini = 0.493\nsamples = 40\nvalue = [27, 34]\nclass = Metastatic", fillcolor="#d6ebfa"] ;
1 -> 2 ;
3 [label="gini = 0.346\nsamples = 16\nvalue = [21, 6]\nclass = Primary Tumor", fillcolor="#eca572"] ;
2 -> 3 ;
4 [label="KRT14 <= -0.182\ngini = 0.291\nsamples = 24\nvalue = [6, 28]\nclass = Metastatic", fillcolor="#63b2eb"] ;
2 -> 4 ;
5 [label="gini = 0.1\nsamples = 12\nvalue = [1, 18]\nclass = Metastatic", fillcolor="#44a2e6"] ;
4 -> 5 ;
6 [label="gini = 0.444\nsamples = 12\nvalue = [5, 10]\nclass = Metastatic", fillcolor="#9ccef2"] ;
4 -> 6 ;
7 [label="gini = 0.0\nsamples = 21\nvalue = [33, 0]\nclass = Primary Tumor", fillcolor="#e58139"] ;
1 -> 7 ;
8 [label="KRTDAP <= -0.18\ngini = 0.089\nsamples = 124\nvalue = [9, 183]\nclass = Metastatic", fillcolor="#43a2e6"] ;
0 -> 8 [labeldistance=2.5, labelangle=-45, headlabel="False"] ;
9 [label="KRT6B <= -0.152\ngini = 0.034\nsamples = 112\nvalue = [3, 173]\nclass = Metastatic", fillcolor="#3c9fe5"] ;
8 -> 9 ;
10 [label="KRTDAP <= -0.184\ngini = 0.012\nsamples = 100\nvalue = [1, 161]\nclass = Metastatic", fillcolor="#3a9ee5"] ;
9 -> 10 ;
11 [label="gini = 0.0\nsamples = 88\nvalue = [0, 144]\nclass = Metastatic", fillcolor="#399de5"] ;
10 -> 11 ;
12 [label="gini = 0.105\nsamples = 12\nvalue = [1, 17]\nclass = Metastatic", fillcolor="#45a3e7"] ;
10 -> 12 ;
13 [label="gini = 0.245\nsamples = 12\nvalue = [2, 12]\nclass = Metastatic", fillcolor="#5aade9"] ;
9 -> 13 ;
14 [label="gini = 0.469\nsamples = 12\nvalue = [6, 10]\nclass = Metastatic", fillcolor="#b0d8f5"] ;
8 -> 14 ;
}