digraph Tree {
node [shape=box, style="filled", color="black"] ;
0 [label="C7 <= -0.413\ngini = 0.387\nsamples = 177\nvalue = [75, 211]\nclass = Metastatic", fillcolor="#7fc0ee"] ;
1 [label="treatments_radiation_treatment_or_therapy_yes <= 0.399\ngini = 0.473\nsamples = 68\nvalue = [66, 41]\nclass = Primary Tumor", fillcolor="#f5cfb4"] ;
0 -> 1 [labeldistance=2.5, labelangle=45, headlabel="True"] ;
2 [label="CLEC2A <= -0.164\ngini = 0.369\nsamples = 55\nvalue = [65, 21]\nclass = Primary Tumor", fillcolor="#edaa79"] ;
1 -> 2 ;
3 [label="PVRL4 <= -0.226\ngini = 0.495\nsamples = 27\nvalue = [23, 19]\nclass = Primary Tumor", fillcolor="#fae9dd"] ;
2 -> 3 ;
4 [label="gini = 0.432\nsamples = 12\nvalue = [6, 13]\nclass = Metastatic", fillcolor="#94caf1"] ;
3 -> 4 ;
5 [label="gini = 0.386\nsamples = 15\nvalue = [17, 6]\nclass = Primary Tumor", fillcolor="#eead7f"] ;
3 -> 5 ;
6 [label="PVRL4 <= 0.066\ngini = 0.087\nsamples = 28\nvalue = [42, 2]\nclass = Primary Tumor", fillcolor="#e68742"] ;
2 -> 6 ;
7 [label="gini = 0.0\nsamples = 16\nvalue = [26, 0]\nclass = Primary Tumor", fillcolor="#e58139"] ;
6 -> 7 ;
8 [label="gini = 0.198\nsamples = 12\nvalue = [16, 2]\nclass = Primary Tumor", fillcolor="#e89152"] ;
6 -> 8 ;
9 [label="gini = 0.091\nsamples = 13\nvalue = [1, 20]\nclass = Metastatic", fillcolor="#43a2e6"] ;
1 -> 9 ;
10 [label="bmi <= 0.651\ngini = 0.096\nsamples = 109\nvalue = [9, 170]\nclass = Metastatic", fillcolor="#43a2e6"] ;
0 -> 10 [labeldistance=2.5, labelangle=-45, headlabel="False"] ;
11 [label="C7 <= -0.401\ngini = 0.015\nsamples = 83\nvalue = [1, 135]\nclass = Metastatic", fillcolor="#3a9ee5"] ;
10 -> 11 ;
12 [label="gini = 0.1\nsamples = 12\nvalue = [1, 18]\nclass = Metastatic", fillcolor="#44a2e6"] ;
11 -> 12 ;
13 [label="gini = 0.0\nsamples = 71\nvalue = [0, 117]\nclass = Metastatic", fillcolor="#399de5"] ;
11 -> 13 ;
14 [label="PVRL4 <= -0.245\ngini = 0.303\nsamples = 26\nvalue = [8, 35]\nclass = Metastatic", fillcolor="#66b3eb"] ;
10 -> 14 ;
15 [label="gini = 0.0\nsamples = 14\nvalue = [0, 24]\nclass = Metastatic", fillcolor="#399de5"] ;
14 -> 15 ;
16 [label="gini = 0.488\nsamples = 12\nvalue = [8, 11]\nclass = Metastatic", fillcolor="#c9e4f8"] ;
14 -> 16 ;
}