digraph Tree {
node [shape=box, style="filled", color="black"] ;
0 [label="CLEC2A <= -0.11\ngini = 0.34\nsamples = 178\nvalue = [62, 224]\nclass = Metastatic", fillcolor="#70b8ec"] ;
1 [label="KRT17 <= -0.14\ngini = 0.187\nsamples = 147\nvalue = [25, 214]\nclass = Metastatic", fillcolor="#50a8e8"] ;
0 -> 1 [labeldistance=2.5, labelangle=45, headlabel="True"] ;
2 [label="KRTDAP <= -0.184\ngini = 0.12\nsamples = 121\nvalue = [13, 190]\nclass = Metastatic", fillcolor="#47a4e7"] ;
1 -> 2 ;
3 [label="C7 <= -0.434\ngini = 0.093\nsamples = 109\nvalue = [9, 175]\nclass = Metastatic", fillcolor="#43a2e6"] ;
2 -> 3 ;
4 [label="gini = 0.494\nsamples = 12\nvalue = [8, 10]\nclass = Metastatic", fillcolor="#d7ebfa"] ;
3 -> 4 ;
5 [label="KRT17 <= -0.141\ngini = 0.012\nsamples = 97\nvalue = [1, 165]\nclass = Metastatic", fillcolor="#3a9ee5"] ;
3 -> 5 ;
6 [label="gini = 0.105\nsamples = 12\nvalue = [1, 17]\nclass = Metastatic", fillcolor="#45a3e7"] ;
5 -> 6 ;
7 [label="gini = 0.0\nsamples = 85\nvalue = [0, 148]\nclass = Metastatic", fillcolor="#399de5"] ;
5 -> 7 ;
8 [label="gini = 0.332\nsamples = 12\nvalue = [4, 15]\nclass = Metastatic", fillcolor="#6eb7ec"] ;
2 -> 8 ;
9 [label="PVRL4 <= -0.163\ngini = 0.444\nsamples = 26\nvalue = [12, 24]\nclass = Metastatic", fillcolor="#9ccef2"] ;
1 -> 9 ;
10 [label="gini = 0.33\nsamples = 14\nvalue = [5, 19]\nclass = Metastatic", fillcolor="#6db7ec"] ;
9 -> 10 ;
11 [label="gini = 0.486\nsamples = 12\nvalue = [7, 5]\nclass = Primary Tumor", fillcolor="#f8dbc6"] ;
9 -> 11 ;
12 [label="C7 <= -0.428\ngini = 0.335\nsamples = 31\nvalue = [37, 10]\nclass = Primary Tumor", fillcolor="#eca36f"] ;
0 -> 12 [labeldistance=2.5, labelangle=-45, headlabel="False"] ;
13 [label="gini = 0.067\nsamples = 19\nvalue = [28, 1]\nclass = Primary Tumor", fillcolor="#e68640"] ;
12 -> 13 ;
14 [label="gini = 0.5\nsamples = 12\nvalue = [9, 9]\nclass = Primary Tumor", fillcolor="#ffffff"] ;
12 -> 14 ;
}